digraph Tree {
node [shape=box, style="filled", color="black", fontname="helvetica"] ;
edge [fontname="helvetica"] ;
0 [label="pass_int <= 0.5\ngini = 0.5\nsamples = 1148\nvalue = [580, 568]\nclass = loss", fillcolor="#fefcfb"] ;
1 [label="pass_sacked_yds <= 12.5\ngini = 0.455\nsamples = 555\nvalue = [194, 361]\nclass = win", fillcolor="#a3d2f3"] ;
0 -> 1 [labeldistance=2.5, labelangle=45, headlabel="True"] ;
2 [label="pass_long <= 35.5\ngini = 0.347\nsamples = 291\nvalue = [65, 226]\nclass = win", fillcolor="#72b9ec"] ;
1 -> 2 ;
3 [label="offense <= 50.5\ngini = 0.437\nsamples = 121\nvalue = [39, 82]\nclass = win", fillcolor="#97ccf1"] ;
2 -> 3 ;
4 [label="pass_long <= 21.5\ngini = 0.408\nsamples = 14\nvalue = [10, 4]\nclass = loss", fillcolor="#efb388"] ;
3 -> 4 ;
5 [label="offense <= 30.0\ngini = 0.375\nsamples = 4\nvalue = [1, 3]\nclass = win", fillcolor="#7bbeee"] ;
4 -> 5 ;
6 [label="gini = 0.0\nsamples = 1\nvalue = [1, 0]\nclass = loss", fillcolor="#e58139"] ;
5 -> 6 ;
7 [label="gini = 0.0\nsamples = 3\nvalue = [0, 3]\nclass = win", fillcolor="#399de5"] ;
5 -> 7 ;
8 [label="pass_yds <= 209.0\ngini = 0.18\nsamples = 10\nvalue = [9, 1]\nclass = loss", fillcolor="#e88f4f"] ;
4 -> 8 ;
9 [label="gini = 0.0\nsamples = 9\nvalue = [9, 0]\nclass = loss", fillcolor="#e58139"] ;
8 -> 9 ;
10 [label="gini = 0.0\nsamples = 1\nvalue = [0, 1]\nclass = win", fillcolor="#399de5"] ;
8 -> 10 ;
11 [label="pass_long <= 20.5\ngini = 0.395\nsamples = 107\nvalue = [29, 78]\nclass = win", fillcolor="#83c1ef"] ;
3 -> 11 ;
12 [label="gini = 0.0\nsamples = 17\nvalue = [0, 17]\nclass = win", fillcolor="#399de5"] ;
11 -> 12 ;
13 [label="rush_yds <= 4.5\ngini = 0.437\nsamples = 90\nvalue = [29, 61]\nclass = win", fillcolor="#97ccf1"] ;
11 -> 13 ;
14 [label="gini = 0.239\nsamples = 36\nvalue = [5, 31]\nclass = win", fillcolor="#59ade9"] ;
13 -> 14 ;
15 [label="gini = 0.494\nsamples = 54\nvalue = [24, 30]\nclass = win", fillcolor="#d7ebfa"] ;
13 -> 15 ;
16 [label="pass_att <= 43.5\ngini = 0.259\nsamples = 170\nvalue = [26, 144]\nclass = win", fillcolor="#5dafea"] ;
2 -> 16 ;
17 [label="rush_yds <= -6.0\ngini = 0.215\nsamples = 155\nvalue = [19, 136]\nclass = win", fillcolor="#55abe9"] ;
16 -> 17 ;
18 [label="gini = 0.0\nsamples = 1\nvalue = [1, 0]\nclass = loss", fillcolor="#e58139"] ;
17 -> 18 ;
19 [label="pass_cmp_pct <= 0.741\ngini = 0.206\nsamples = 154\nvalue = [18, 136]\nclass = win", fillcolor="#53aae8"] ;
17 -> 19 ;
20 [label="gini = 0.265\nsamples = 108\nvalue = [17, 91]\nclass = win", fillcolor="#5eafea"] ;
19 -> 20 ;
21 [label="gini = 0.043\nsamples = 46\nvalue = [1, 45]\nclass = win", fillcolor="#3d9fe6"] ;
19 -> 21 ;
22 [label="pass_cmp <= 32.5\ngini = 0.498\nsamples = 15\nvalue = [7, 8]\nclass = win", fillcolor="#e6f3fc"] ;
16 -> 22 ;
23 [label="offense <= 74.5\ngini = 0.42\nsamples = 10\nvalue = [7, 3]\nclass = loss", fillcolor="#f0b78e"] ;
22 -> 23 ;
24 [label="gini = 0.0\nsamples = 5\nvalue = [5, 0]\nclass = loss", fillcolor="#e58139"] ;
23 -> 24 ;
25 [label="gini = 0.48\nsamples = 5\nvalue = [2, 3]\nclass = win", fillcolor="#bddef6"] ;
23 -> 25 ;
26 [label="gini = 0.0\nsamples = 5\nvalue = [0, 5]\nclass = win", fillcolor="#399de5"] ;
22 -> 26 ;
27 [label="pass_cmp_pct <= 0.551\ngini = 0.5\nsamples = 264\nvalue = [129, 135]\nclass = win", fillcolor="#f6fbfe"] ;
1 -> 27 ;
28 [label="pass_yds <= 176.5\ngini = 0.255\nsamples = 40\nvalue = [34, 6]\nclass = loss", fillcolor="#ea975c"] ;
27 -> 28 ;
29 [label="offense <= 54.5\ngini = 0.397\nsamples = 22\nvalue = [16, 6]\nclass = loss", fillcolor="#efb083"] ;
28 -> 29 ;
30 [label="gini = 0.0\nsamples = 11\nvalue = [11, 0]\nclass = loss", fillcolor="#e58139"] ;
29 -> 30 ;
31 [label="pass_cmp <= 14.5\ngini = 0.496\nsamples = 11\nvalue = [5, 6]\nclass = win", fillcolor="#deeffb"] ;
29 -> 31 ;
32 [label="gini = 0.0\nsamples = 5\nvalue = [0, 5]\nclass = win", fillcolor="#399de5"] ;
31 -> 32 ;
33 [label="gini = 0.278\nsamples = 6\nvalue = [5, 1]\nclass = loss", fillcolor="#ea9a61"] ;
31 -> 33 ;
34 [label="gini = 0.0\nsamples = 18\nvalue = [18, 0]\nclass = loss", fillcolor="#e58139"] ;
28 -> 34 ;
35 [label="pass_td <= 0.5\ngini = 0.488\nsamples = 224\nvalue = [95, 129]\nclass = win", fillcolor="#cbe5f8"] ;
27 -> 35 ;
36 [label="rush_td <= 0.5\ngini = 0.423\nsamples = 46\nvalue = [32, 14]\nclass = loss", fillcolor="#f0b890"] ;
35 -> 36 ;
37 [label="pass_yds <= 282.5\ngini = 0.291\nsamples = 34\nvalue = [28, 6]\nclass = loss", fillcolor="#eb9c63"] ;
36 -> 37 ;
38 [label="gini = 0.175\nsamples = 31\nvalue = [28, 3]\nclass = loss", fillcolor="#e88e4e"] ;
37 -> 38 ;
39 [label="gini = 0.0\nsamples = 3\nvalue = [0, 3]\nclass = win", fillcolor="#399de5"] ;
37 -> 39 ;
40 [label="pass_cmp <= 26.5\ngini = 0.444\nsamples = 12\nvalue = [4, 8]\nclass = win", fillcolor="#9ccef2"] ;
36 -> 40 ;
41 [label="gini = 0.32\nsamples = 10\nvalue = [2, 8]\nclass = win", fillcolor="#6ab6ec"] ;
40 -> 41 ;
42 [label="gini = 0.0\nsamples = 2\nvalue = [2, 0]\nclass = loss", fillcolor="#e58139"] ;
40 -> 42 ;
43 [label="pass_att <= 25.5\ngini = 0.457\nsamples = 178\nvalue = [63, 115]\nclass = win", fillcolor="#a5d3f3"] ;
35 -> 43 ;
44 [label="pass_long <= 81.5\ngini = 0.064\nsamples = 30\nvalue = [1, 29]\nclass = win", fillcolor="#40a0e6"] ;
43 -> 44 ;
45 [label="gini = 0.0\nsamples = 29\nvalue = [0, 29]\nclass = win", fillcolor="#399de5"] ;
44 -> 45 ;
46 [label="gini = 0.0\nsamples = 1\nvalue = [1, 0]\nclass = loss", fillcolor="#e58139"] ;
44 -> 46 ;
47 [label="pass_cmp <= 30.5\ngini = 0.487\nsamples = 148\nvalue = [62, 86]\nclass = win", fillcolor="#c8e4f8"] ;
43 -> 47 ;
48 [label="gini = 0.471\nsamples = 132\nvalue = [50, 82]\nclass = win", fillcolor="#b2d9f5"] ;
47 -> 48 ;
49 [label="gini = 0.375\nsamples = 16\nvalue = [12, 4]\nclass = loss", fillcolor="#eeab7b"] ;
47 -> 49 ;
50 [label="pass_cmp_pct <= 0.703\ngini = 0.454\nsamples = 593\nvalue = [386, 207]\nclass = loss", fillcolor="#f3c5a3"] ;
0 -> 50 [labeldistance=2.5, labelangle=-45, headlabel="False"] ;
51 [label="pass_sacked_yds <= 15.5\ngini = 0.389\nsamples = 462\nvalue = [340, 122]\nclass = loss", fillcolor="#eeae80"] ;
50 -> 51 ;
52 [label="pass_int <= 1.5\ngini = 0.473\nsamples = 250\nvalue = [154, 96]\nclass = loss", fillcolor="#f5d0b4"] ;
51 -> 52 ;
53 [label="pass_att <= 25.5\ngini = 0.5\nsamples = 158\nvalue = [81, 77]\nclass = loss", fillcolor="#fef9f5"] ;
52 -> 53 ;
54 [label="offense <= 50.0\ngini = 0.287\nsamples = 23\nvalue = [4, 19]\nclass = win", fillcolor="#63b2ea"] ;
53 -> 54 ;
55 [label="gini = 0.48\nsamples = 5\nvalue = [3, 2]\nclass = loss", fillcolor="#f6d5bd"] ;
54 -> 55 ;
56 [label="gini = 0.105\nsamples = 18\nvalue = [1, 17]\nclass = win", fillcolor="#45a3e7"] ;
54 -> 56 ;
57 [label="pass_cmp_pct <= 0.588\ngini = 0.49\nsamples = 135\nvalue = [77, 58]\nclass = loss", fillcolor="#f9e0ce"] ;
53 -> 57 ;
58 [label="gini = 0.338\nsamples = 51\nvalue = [40, 11]\nclass = loss", fillcolor="#eca46f"] ;
57 -> 58 ;
59 [label="gini = 0.493\nsamples = 84\nvalue = [37, 47]\nclass = win", fillcolor="#d5eaf9"] ;
57 -> 59 ;
60 [label="rush_att <= 13.5\ngini = 0.328\nsamples = 92\nvalue = [73, 19]\nclass = loss", fillcolor="#eca26d"] ;
52 -> 60 ;
61 [label="pass_cmp_pct <= 0.626\ngini = 0.295\nsamples = 89\nvalue = [73, 16]\nclass = loss", fillcolor="#eb9d64"] ;
60 -> 61 ;
62 [label="gini = 0.165\nsamples = 55\nvalue = [50, 5]\nclass = loss", fillcolor="#e88e4d"] ;
61 -> 62 ;
63 [label="gini = 0.438\nsamples = 34\nvalue = [23, 11]\nclass = loss", fillcolor="#f1bd98"] ;
61 -> 63 ;
64 [label="gini = 0.0\nsamples = 3\nvalue = [0, 3]\nclass = win", fillcolor="#399de5"] ;
60 -> 64 ;
65 [label="pass_att <= 28.5\ngini = 0.215\nsamples = 212\nvalue = [186, 26]\nclass = loss", fillcolor="#e99355"] ;
51 -> 65 ;
66 [label="offense <= 57.5\ngini = 0.39\nsamples = 49\nvalue = [36, 13]\nclass = loss", fillcolor="#eeae80"] ;
65 -> 66 ;
67 [label="offense <= 55.5\ngini = 0.114\nsamples = 33\nvalue = [31, 2]\nclass = loss", fillcolor="#e78946"] ;
66 -> 67 ;
68 [label="gini = 0.0\nsamples = 27\nvalue = [27, 0]\nclass = loss", fillcolor="#e58139"] ;
67 -> 68 ;
69 [label="gini = 0.444\nsamples = 6\nvalue = [4, 2]\nclass = loss", fillcolor="#f2c09c"] ;
67 -> 69 ;
70 [label="pass_long <= 30.5\ngini = 0.43\nsamples = 16\nvalue = [5, 11]\nclass = win", fillcolor="#93caf1"] ;
66 -> 70 ;
71 [label="gini = 0.469\nsamples = 8\nvalue = [5, 3]\nclass = loss", fillcolor="#f5cdb0"] ;
70 -> 71 ;
72 [label="gini = 0.0\nsamples = 8\nvalue = [0, 8]\nclass = win", fillcolor="#399de5"] ;
70 -> 72 ;
73 [label="pass_td <= 2.5\ngini = 0.147\nsamples = 163\nvalue = [150, 13]\nclass = loss", fillcolor="#e78c4a"] ;
65 -> 73 ;
74 [label="rush_yds <= -3.0\ngini = 0.094\nsamples = 141\nvalue = [134, 7]\nclass = loss", fillcolor="#e68843"] ;
73 -> 74 ;
75 [label="gini = 0.0\nsamples = 1\nvalue = [0, 1]\nclass = win", fillcolor="#399de5"] ;
74 -> 75 ;
76 [label="gini = 0.082\nsamples = 140\nvalue = [134, 6]\nclass = loss", fillcolor="#e68742"] ;
74 -> 76 ;
77 [label="pass_long <= 41.5\ngini = 0.397\nsamples = 22\nvalue = [16, 6]\nclass = loss", fillcolor="#efb083"] ;
73 -> 77 ;
78 [label="gini = 0.278\nsamples = 6\nvalue = [1, 5]\nclass = win", fillcolor="#61b1ea"] ;
77 -> 78 ;
79 [label="gini = 0.117\nsamples = 16\nvalue = [15, 1]\nclass = loss", fillcolor="#e78946"] ;
77 -> 79 ;
80 [label="offense <= 54.5\ngini = 0.456\nsamples = 131\nvalue = [46, 85]\nclass = win", fillcolor="#a4d2f3"] ;
50 -> 80 ;
81 [label="pass_sacked <= 0.5\ngini = 0.291\nsamples = 17\nvalue = [14, 3]\nclass = loss", fillcolor="#eb9c63"] ;
80 -> 81 ;
82 [label="pass_yds <= 320.0\ngini = 0.444\nsamples = 3\nvalue = [1, 2]\nclass = win", fillcolor="#9ccef2"] ;
81 -> 82 ;
83 [label="gini = 0.0\nsamples = 2\nvalue = [0, 2]\nclass = win", fillcolor="#399de5"] ;
82 -> 83 ;
84 [label="gini = 0.0\nsamples = 1\nvalue = [1, 0]\nclass = loss", fillcolor="#e58139"] ;
82 -> 84 ;
85 [label="pass_yds <= 345.5\ngini = 0.133\nsamples = 14\nvalue = [13, 1]\nclass = loss", fillcolor="#e78b48"] ;
81 -> 85 ;
86 [label="gini = 0.0\nsamples = 13\nvalue = [13, 0]\nclass = loss", fillcolor="#e58139"] ;
85 -> 86 ;
87 [label="gini = 0.0\nsamples = 1\nvalue = [0, 1]\nclass = win", fillcolor="#399de5"] ;
85 -> 87 ;
88 [label="pass_att <= 37.5\ngini = 0.404\nsamples = 114\nvalue = [32, 82]\nclass = win", fillcolor="#86c3ef"] ;
80 -> 88 ;
89 [label="offense <= 60.5\ngini = 0.263\nsamples = 77\nvalue = [12, 65]\nclass = win", fillcolor="#5eafea"] ;
88 -> 89 ;
90 [label="pass_att <= 27.5\ngini = 0.457\nsamples = 17\nvalue = [6, 11]\nclass = win", fillcolor="#a5d2f3"] ;
89 -> 90 ;
91 [label="gini = 0.0\nsamples = 7\nvalue = [0, 7]\nclass = win", fillcolor="#399de5"] ;
90 -> 91 ;
92 [label="gini = 0.48\nsamples = 10\nvalue = [6, 4]\nclass = loss", fillcolor="#f6d5bd"] ;
90 -> 92 ;
93 [label="rush_yds <= 54.0\ngini = 0.18\nsamples = 60\nvalue = [6, 54]\nclass = win", fillcolor="#4fa8e8"] ;
89 -> 93 ;
94 [label="gini = 0.103\nsamples = 55\nvalue = [3, 52]\nclass = win", fillcolor="#44a3e6"] ;
93 -> 94 ;
95 [label="gini = 0.48\nsamples = 5\nvalue = [3, 2]\nclass = loss", fillcolor="#f6d5bd"] ;
93 -> 95 ;
96 [label="pass_sacked_yds <= 16.5\ngini = 0.497\nsamples = 37\nvalue = [20, 17]\nclass = loss", fillcolor="#fbece1"] ;
88 -> 96 ;
97 [label="pass_cmp <= 34.5\ngini = 0.388\nsamples = 19\nvalue = [5, 14]\nclass = win", fillcolor="#80c0ee"] ;
96 -> 97 ;
98 [label="gini = 0.245\nsamples = 14\nvalue = [2, 12]\nclass = win", fillcolor="#5aade9"] ;
97 -> 98 ;
99 [label="gini = 0.48\nsamples = 5\nvalue = [3, 2]\nclass = loss", fillcolor="#f6d5bd"] ;
97 -> 99 ;
100 [label="pass_sacked_yds <= 33.0\ngini = 0.278\nsamples = 18\nvalue = [15, 3]\nclass = loss", fillcolor="#ea9a61"] ;
96 -> 100 ;
101 [label="gini = 0.124\nsamples = 15\nvalue = [14, 1]\nclass = loss", fillcolor="#e78a47"] ;
100 -> 101 ;
102 [label="gini = 0.444\nsamples = 3\nvalue = [1, 2]\nclass = win", fillcolor="#9ccef2"] ;
100 -> 102 ;
}